lambda,coeff_feature_1,coeff_feature_2,coeff_feature_3,coeff_feature_4,coeff_feature_5,coeff_feature_6,coeff_feature_7,coeff_feature_8,coeff_feature_9,coeff_feature_10
0.0,19.284290674718136,-11.591029193092982,-3.879850019917259,4.029418352037095,-8.7026970924578,-10.6463137814999,-0.9770856799511412,-6.950527356181989,-22.34395726879184,-1.6745018774406226
0.04,19.283333188075932,-11.590441987296067,-3.879673238658069,4.029303932148669,-8.702257777179609,-10.645722025319962,-0.9770716653439604,-6.950087912663928,-22.34279448653743,-1.6743410280982105
0.08,19.28237579627167,-11.589854841328524,-3.879496473258548,4.029189515864429,-8.701818507420938,-10.645130334802204,-0.9770576480683464,-6.949648522555428,-22.341631826891994,-1.6741802017661134
0.12,19.281418499291313,-11.58926775518115,-3.8793197237166286,4.029075103184907,-8.70137928317456,-10.644538709935704,-0.9770436281254202,-6.949209185846975,-22.340469289835912,-1.6740193984399383
0.16,19.280461297120823,-11.58868072884476,-3.8791429900302306,4.028960694110639,-8.700940104433235,-10.64394715070954,-0.977029605516297,-6.948769902529056,-22.339306875349592,-1.6738586181152924
0.2,19.279504189746145,-11.588093762310166,-3.8789662721972835,4.028846288642155,-8.700500971189742,-10.643355657112805,-0.9770155802420983,-6.948330672592164,-22.33814458341341,-1.6736978607877844
0.24,19.278547177153264,-11.587506855568192,-3.8787895702157087,4.028731886779987,-8.700061883436856,-10.64276422913458,-0.9770015523039413,-6.94789149602679,-22.336982414007764,-1.6735371264530223
0.28,19.277590259328143,-11.586920008609644,-3.878612884083437,4.028617488524672,-8.699622841167345,-10.642172866763966,-0.9769875217029431,-6.9474523728234345,-22.335820367113087,-1.6733764151066177
0.32,19.276633436256752,-11.58633322142534,-3.878436213798389,4.028503093876734,-8.699183844373996,-10.641581569990047,-0.9769734884402219,-6.947013302972588,-22.334658442709745,-1.6732157267441812
0.36,19.27567670792507,-11.585746494006115,-3.8782595593584963,4.028388702836716,-8.698744893049573,-10.640990338801924,-0.9769594525168941,-6.946574286464756,-22.333496640778183,-1.6730550613613264
0.4,19.27472007431907,-11.585159826342778,-3.8780829207616856,4.028274315405138,-8.698305987186874,-10.64039917318869,-0.9769454139340759,-6.94613532329044,-22.332334961298812,-1.672894418953666
0.44,19.273763535424735,-11.58457321842616,-3.877906298005886,4.028159931582539,-8.697867126778663,-10.639808073139449,-0.9769313726928841,-6.945696413440142,-22.33117340425203,-1.672733799516814
0.48,19.27280709122805,-11.583986670247088,-3.877729691089021,4.028045551369442,-8.697428311817733,-10.6392170386433,-0.9769173287944322,-6.945257556904373,-22.330011969618297,-1.6725732030463882
0.52,19.271850741715003,-11.583400181796392,-3.877553100009025,4.027931174766385,-8.696989542296864,-10.63862606968935,-0.976903282239838,-6.94481875367364,-22.328850657378013,-1.672412629538003
0.56,19.27089448687157,-11.582813753064897,-3.877376524763819,4.027816801773896,-8.696550818208854,-10.63803516626671,-0.9768892330302157,-6.944380003738454,-22.327689467511618,-1.672252078987277
0.6,19.269938326683754,-11.582227384043433,-3.8771999653513385,4.027702432392499,-8.696112139546473,-10.637444328364483,-0.9768751811666796,-6.9439413070893234,-22.326528399999546,-1.6720915513898285
0.64,19.268982261137538,-11.581641074722844,-3.8770234217695103,4.027588066622732,-8.695673506302523,-10.63685355597179,-0.9768611266503431,-6.9435026637167745,-22.32536745482226,-1.6719310467412787
0.68,19.268026290218938,-11.581054825093956,-3.8768468940162637,4.027473704465116,-8.695234918469785,-10.636262849077731,-0.9768470694823215,-6.943064073611318,-22.324206631960184,-1.671770565037247
0.72,19.267070413913927,-11.58046863514762,-3.8766703820895305,4.027359345920187,-8.694796376041056,-10.635672207671444,-0.9768330096637265,-6.942625536763474,-22.32304593139377,-1.6716101062733553
0.76,19.26611463220853,-11.579882504874664,-3.8764938859872418,4.027244990988472,-8.694357879009132,-10.635081631742029,-0.9768189471956714,-6.942187053163767,-22.321885353103482,-1.6714496704452277
0.8,19.265158945088743,-11.579296434265936,-3.876317405707324,4.027130639670498,-8.693919427366811,-10.634491121278618,-0.9768048820792692,-6.941748622802722,-22.320724897069773,-1.6712892575484875
0.84,19.264203352540576,-11.578710423312275,-3.8761409412477095,4.02701629196679,-8.693481021106882,-10.633900676270338,-0.9767908143156321,-6.941310245670864,-22.319564563273108,-1.6711288675787603
0.88,19.263247854550038,-11.578124472004532,-3.8759644926063337,4.02690194787788,-8.693042660222144,-10.633310296706304,-0.9767767439058719,-6.940871921758722,-22.318404351693953,-1.6709685005316708
0.92,19.262292451103136,-11.577538580333549,-3.8757880597811245,4.026787607404294,-8.692604344705403,-10.632719982575662,-0.9767626708510997,-6.9404336510568285,-22.31724426231277,-1.670808156402848
0.96,19.261337142185898,-11.576952748290177,-3.8756116427700147,4.026673270546558,-8.692166074549457,-10.632129733867524,-0.9767485951524266,-6.939995433555712,-22.316084295110045,-1.6706478351879182
1.0,19.26038192778433,-11.57636697586527,-3.875435241570936,4.0265589373052,-8.691727849747114,-10.631539550571041,-0.9767345168109622,-6.939557269245917,-22.314924450066254,-1.6704875368825123
1.04,19.25942680788447,-11.575781263049679,-3.875258856181826,4.026444607680749,-8.691289670291171,-10.630949432675338,-0.9767204358278174,-6.939119158117974,-22.313764727161885,-1.67032726148226
1.08,19.258471782472323,-11.575195609834255,-3.8750824866006104,4.026330281673724,-8.690851536174439,-10.630359380169558,-0.9767063522041037,-6.938681100162424,-22.312605126377413,-1.6701670089827922
1.12,19.257516851533932,-11.574610016209862,-3.8749061328252288,4.026215959284657,-8.690413447389721,-10.629769393042842,-0.9766922659409283,-6.938243095369813,-22.31144564769335,-1.670006779379742
1.16,19.256562015055316,-11.574024482167356,-3.8747297948536144,4.026101640514072,-8.689975403929836,-10.62917947128434,-0.9766781770393997,-6.9378051437306825,-22.310286291090176,-1.6698465726687415
1.2,19.25560727302251,-11.57343900769759,-3.8745534726836954,4.025987325362493,-8.689537405787581,-10.628589614883188,-0.9766640855006286,-6.937367245235577,-22.309127056548395,-1.669686388845427
1.24,19.25465262542155,-11.572853592791441,-3.8743771663134137,4.025873013830445,-8.689099452955787,-10.627999823828539,-0.9766499913257214,-6.936929399875054,-22.307967944048514,-1.6695262279054326
1.28,19.25369807223848,-11.572268237439763,-3.8742008757407005,4.025758705918455,-8.68866154542725,-10.627410098109543,-0.9766358945157882,-6.936491607639654,-22.306808953571043,-1.6693660898443956
1.32,19.25274361345933,-11.571682941633425,-3.874024600963491,4.025644401627046,-8.688223683194794,-10.626820437715354,-0.9766217950719345,-6.936053868519934,-22.305650085096485,-1.6692059746579528
1.36,19.251789249070143,-11.571097705363293,-3.873848341979719,4.025530100956741,-8.687785866251238,-10.626230842635124,-0.9766076929952678,-6.935616182506454,-22.30449133860537,-1.6690458823417438
1.4,19.250834979056982,-11.570512528620238,-3.8736720987873254,4.025415803908063,-8.687348094589396,-10.625641312858018,-0.9765935882868959,-6.935178549589768,-22.30333271407821,-1.668885812891408
1.44,19.249880803405887,-11.569927411395133,-3.873495871384244,4.025301510481537,-8.686910368202089,-10.625051848373188,-0.9765794809479236,-6.934740969760433,-22.30217421149554,-1.6687257663025852
1.48,19.248926722102897,-11.56934235367885,-3.8733196597684096,4.0251872206776875,-8.686472687082139,-10.624462449169805,-0.9765653709794566,-6.934303443009017,-22.301015830837887,-1.6685657425709182
1.52,19.247972735134077,-11.568757355462266,-3.873143463937761,4.025072934497037,-8.686035051222369,-10.623873115237032,-0.9765512583826013,-6.933865969326078,-22.299857572085777,-1.6684057416920495
1.56,19.24701884248549,-11.568172416736262,-3.872967283890235,4.024958651940104,-8.685597460615607,-10.623283846564032,-0.9765371431584637,-6.933428548702192,-22.298699435219756,-1.668245763661623
1.6,19.24606504414319,-11.567587537491706,-3.8727911196237685,4.0248443730074115,-8.68515991525468,-10.62269464313998,-0.9765230253081469,-6.932991181127915,-22.29754142022037,-1.6680858084752828
1.64,19.24511134009324,-11.567002717719491,-3.8726149711363007,4.0247300976994875,-8.684722415132413,-10.622105504954044,-0.9765089048327558,-6.932553866593829,-22.29638352706815,-1.667925876128676
1.68,19.244157730321692,-11.566417957410497,-3.87243883842577,4.0246158260168485,-8.68428496024163,-10.621516431995403,-0.9764947817333953,-6.932116605090501,-22.29522575574365,-1.667765966617449
1.72,19.243204214814632,-11.565833256555607,-3.872262721490113,4.024501557960016,-8.683847550575164,-10.620927424253233,-0.976480656011167,-6.931679396608508,-22.29406810622744,-1.6676060799372494
1.76,19.242250793558128,-11.565248615145705,-3.8720866203272712,4.024387293529511,-8.683410186125862,-10.620338481716713,-0.9764665276671749,-6.931242241138428,-22.292910578500067,-1.6674462160837265
1.8,19.241297466538256,-11.564664033171685,-3.8719105349351812,4.024273032725856,-8.682972866886537,-10.619749604375023,-0.9764523967025234,-6.9308051386708405,-22.2917531725421,-1.6672863750525315
1.84,19.240344233741077,-11.564079510624431,-3.871734465311786,4.024158775549571,-8.682535592850035,-10.619160792217349,-0.9764382631183122,-6.930368089196326,-22.290595888334096,-1.6671265568393132
1.88,19.239391095152683,-11.563495047494849,-3.8715584114550223,4.024044522001173,-8.682098364009201,-10.618572045232883,-0.9764241269156451,-6.929931092705473,-22.289438725856645,-1.6669667614397263
1.92,19.238438050759147,-11.562910643773817,-3.8713823733628345,4.023930272081185,-8.681661180356864,-10.617983363410804,-0.9764099880956241,-6.929494149188862,-22.2882816850903,-1.6668069888494217
1.96,19.237485100546568,-11.562326299452238,-3.8712063510331562,4.0238160257901265,-8.68122404188586,-10.617394746740311,-0.9763958466593492,-6.929057258637085,-22.28712476601566,-1.666647239064055
