lambda,coeff_feature_1,coeff_feature_2,coeff_feature_3,coeff_feature_4,coeff_feature_5,coeff_feature_6,coeff_feature_7,coeff_feature_8,coeff_feature_9,coeff_feature_10
0.0,19.284290674718125,-11.591029193092975,-3.8798500199172605,4.029418352037094,-8.7026970924578,-10.646313781499902,-0.9770856799511429,-6.95052735618199,-22.343957268791833,-1.6745018774406204
0.04,19.283333188075925,-11.590441987296071,-3.8796732386580675,4.029303932148667,-8.702257777179613,-10.64572202531996,-0.9770716653439628,-6.95008791266393,-22.342794486537414,-1.674341028098208
0.08,19.282375796271666,-11.589854841328517,-3.8794964732585484,4.029189515864428,-8.701818507420942,-10.645130334802205,-0.9770576480683488,-6.949648522555429,-22.341631826891984,-1.6741802017661112
0.12,19.281418499291302,-11.589267755181151,-3.8793197237166295,4.029075103184908,-8.701379283174562,-10.644538709935702,-0.9770436281254221,-6.949209185846977,-22.34046928983591,-1.6740193984399359
0.16,19.28046129712081,-11.588680728844757,-3.8791429900302314,4.028960694110639,-8.700940104433236,-10.643947150709543,-0.9770296055162987,-6.948769902529056,-22.33930687534958,-1.673858618115291
0.2,19.279504189746138,-11.588093762310164,-3.878966272197283,4.028846288642155,-8.700500971189742,-10.643355657112805,-0.9770155802421006,-6.948330672592166,-22.338144583413396,-1.673697860787782
0.24,19.278547177153257,-11.58750685556819,-3.8787895702157082,4.0287318867799895,-8.700061883436856,-10.642764229134585,-0.9770015523039426,-6.9478914960267915,-22.336982414007757,-1.6735371264530206
0.28,19.277590259328143,-11.586920008609638,-3.8786128840834344,4.028617488524672,-8.699622841167347,-10.642172866763968,-0.9769875217029449,-6.9474523728234345,-22.335820367113072,-1.6733764151066153
0.32,19.27663343625675,-11.586333221425338,-3.8784362137983885,4.028503093876734,-8.699183844374001,-10.641581569990045,-0.9769734884402239,-6.947013302972591,-22.33465844270973,-1.6732157267441785
0.36,19.275676707925065,-11.585746494006116,-3.878259559358497,4.028388702836715,-8.698744893049577,-10.640990338801927,-0.9769594525168965,-6.946574286464755,-22.333496640778172,-1.6730550613613238
0.4,19.274720074319063,-11.585159826342775,-3.878082920761687,4.028274315405137,-8.698305987186876,-10.640399173188692,-0.9769454139340777,-6.9461353232904415,-22.3323349612988,-1.6728944189536636
0.44,19.273763535424727,-11.584573218426158,-3.877906298005886,4.028159931582537,-8.697867126778664,-10.639808073139452,-0.9769313726928855,-6.945696413440141,-22.331173404252024,-1.6727337995168126
0.48,19.272807091228035,-11.583986670247088,-3.8777296910890198,4.028045551369441,-8.697428311817735,-10.639217038643299,-0.9769173287944348,-6.945257556904375,-22.330011969618283,-1.672573203046386
0.52,19.271850741714992,-11.583400181796389,-3.877553100009024,4.027931174766385,-8.696989542296865,-10.638626069689352,-0.9769032822398401,-6.944818753673639,-22.328850657378,-1.6724126295380009
0.56,19.270894486871562,-11.582813753064894,-3.8773765247638194,4.027816801773894,-8.69655081820886,-10.638035166266711,-0.9768892330302166,-6.944380003738455,-22.32768946751161,-1.6722520789872752
0.6,19.26993832668375,-11.58222738404343,-3.8771999653513394,4.0277024323925,-8.696112139546475,-10.637444328364484,-0.976875181166682,-6.943941307089322,-22.326528399999532,-1.6720915513898258
0.64,19.268982261137538,-11.581641074722839,-3.87702342176951,4.027588066622731,-8.695673506302526,-10.636853555971788,-0.9768611266503453,-6.943502663716774,-22.325367454822246,-1.6719310467412765
0.68,19.268026290218927,-11.581054825093958,-3.8768468940162633,4.02747370446512,-8.695234918469787,-10.636262849077735,-0.9768470694823224,-6.94306407361132,-22.32420663196017,-1.6717705650372436
0.72,19.26707041391392,-11.580468635147618,-3.876670382089531,4.0273593459201855,-8.694796376041058,-10.635672207671446,-0.9768330096637282,-6.942625536763478,-22.323045931393764,-1.671610106273353
0.76,19.26611463220852,-11.57988250487466,-3.876493885987241,4.027244990988475,-8.694357879009136,-10.635081631742029,-0.9768189471956732,-6.942187053163766,-22.321885353103468,-1.6714496704452255
0.8,19.265158945088736,-11.579296434265935,-3.8763174057073226,4.027130639670497,-8.693919427366811,-10.634491121278622,-0.9768048820792706,-6.941748622802722,-22.32072489706977,-1.6712892575484857
0.84,19.26420335254057,-11.578710423312273,-3.8761409412477095,4.027016291966791,-8.693481021106882,-10.63390067627034,-0.9767908143156337,-6.941310245670863,-22.319564563273097,-1.6711288675787581
0.88,19.263247854550023,-11.578124472004534,-3.8759644926063324,4.02690194787788,-8.693042660222146,-10.633310296706306,-0.9767767439058735,-6.940871921758722,-22.318404351693943,-1.6709685005316688
0.92,19.26229245110313,-11.577538580333549,-3.875788059781125,4.026787607404295,-8.692604344705405,-10.632719982575663,-0.9767626708511005,-6.9404336510568285,-22.317244262312762,-1.6708081564028463
0.96,19.26133714218589,-11.576952748290172,-3.875611642770015,4.026673270546556,-8.692166074549457,-10.632129733867526,-0.9767485951524285,-6.939995433555713,-22.316084295110038,-1.6706478351879153
1.0,19.26038192778433,-11.576366975865268,-3.8754352415709366,4.026558937305201,-8.691727849747114,-10.631539550571038,-0.9767345168109636,-6.939557269245916,-22.314924450066243,-1.67048753688251
1.04,19.259426807884452,-11.575781263049677,-3.8752588561818246,4.026444607680751,-8.691289670291173,-10.63094943267534,-0.9767204358278192,-6.939119158117974,-22.313764727161875,-1.6703272614822575
1.08,19.25847178247231,-11.575195609834253,-3.875082486600611,4.026330281673725,-8.69085153617444,-10.630359380169558,-0.9767063522041051,-6.938681100162425,-22.312605126377402,-1.6701670089827905
1.12,19.25751685153392,-11.574610016209862,-3.8749061328252297,4.026215959284657,-8.690413447389727,-10.629769393042846,-0.97669226594093,-6.938243095369816,-22.31144564769334,-1.6700067793797393
1.16,19.256562015055312,-11.574024482167353,-3.8747297948536135,4.026101640514073,-8.689975403929838,-10.629179471284338,-0.976678177039402,-6.937805143730686,-22.31028629109016,-1.669846572668739
1.2,19.255607273022488,-11.57343900769759,-3.874553472683695,4.025987325362493,-8.689537405787586,-10.628589614883184,-0.9766640855006302,-6.9373672452355795,-22.309127056548377,-1.669686388845424
1.24,19.25465262542155,-11.572853592791438,-3.874377166313413,4.025873013830445,-8.689099452955789,-10.627999823828544,-0.9766499913257232,-6.936929399875054,-22.3079679440485,-1.6695262279054304
1.28,19.25369807223848,-11.572268237439758,-3.874200875740698,4.025758705918457,-8.688661545427252,-10.627410098109545,-0.9766358945157901,-6.936491607639654,-22.30680895357103,-1.669366089844393
1.32,19.252743613459312,-11.571682941633425,-3.874024600963491,4.025644401627046,-8.688223683194796,-10.626820437715352,-0.976621795071936,-6.936053868519936,-22.30565008509647,-1.6692059746579502
1.36,19.251789249070136,-11.57109770536329,-3.8738483419797203,4.025530100956739,-8.68778586625124,-10.626230842635128,-0.976607692995269,-6.935616182506456,-22.304491338605356,-1.6690458823417418
1.4,19.250834979056982,-11.570512528620235,-3.873672098787326,4.025415803908064,-8.687348094589398,-10.625641312858022,-0.9765935882868984,-6.935178549589768,-22.303332714078202,-1.668885812891405
1.44,19.249880803405876,-11.569927411395131,-3.873495871384244,4.025301510481536,-8.686910368202092,-10.625051848373191,-0.9765794809479258,-6.934740969760434,-22.30217421149553,-1.6687257663025827
1.48,19.248926722102894,-11.569342353678849,-3.873319659768409,4.025187220677688,-8.686472687082139,-10.624462449169807,-0.9765653709794591,-6.934303443009014,-22.301015830837876,-1.6685657425709155
1.52,19.24797273513407,-11.56875735546227,-3.87314346393776,4.025072934497038,-8.68603505122237,-10.623873115237036,-0.9765512583826031,-6.93386596932608,-22.29985757208577,-1.6684057416920468
1.56,19.247018842485488,-11.56817241673626,-3.872967283890233,4.0249586519401035,-8.685597460615611,-10.623283846564034,-0.9765371431584662,-6.933428548702192,-22.298699435219746,-1.6682457636616204
1.6,19.246065044143183,-11.567587537491704,-3.8727911196237694,4.024844373007414,-8.685159915254678,-10.622694643139981,-0.9765230253081482,-6.9329911811279175,-22.297541420220355,-1.6680858084752799
1.64,19.245111340093235,-11.567002717719486,-3.8726149711363,4.024730097699486,-8.684722415132413,-10.622105504954046,-0.9765089048327567,-6.932553866593826,-22.296383527068137,-1.6679258761286737
1.68,19.24415773032169,-11.5664179574105,-3.8724388384257704,4.024615826016847,-8.684284960241634,-10.621516431995403,-0.9764947817333969,-6.932116605090501,-22.295225755743637,-1.6677659666174454
1.72,19.243204214814625,-11.565833256555601,-3.8722627214901117,4.024501557960017,-8.68384755057517,-10.620927424253232,-0.976480656011169,-6.931679396608508,-22.294068106227424,-1.6676060799372463
1.76,19.24225079355812,-11.565248615145702,-3.872086620327271,4.024387293529511,-8.683410186125862,-10.620338481716715,-0.9764665276671773,-6.9312422411384285,-22.292910578500056,-1.6674462160837242
1.8,19.241297466538242,-11.564664033171681,-3.871910534935184,4.024273032725855,-8.68297286688654,-10.619749604375023,-0.9764523967025249,-6.930805138670841,-22.29175317254209,-1.6672863750525284
1.84,19.240344233741062,-11.564079510624433,-3.871734465311783,4.024158775549569,-8.682535592850037,-10.61916079221735,-0.9764382631183143,-6.930368089196328,-22.29059588833409,-1.6671265568393108
1.88,19.239391095152676,-11.563495047494845,-3.8715584114550228,4.024044522001175,-8.682098364009205,-10.618572045232886,-0.9764241269156462,-6.929931092705475,-22.289438725856634,-1.6669667614397226
1.92,19.23843805075914,-11.562910643773813,-3.8713823733628328,4.023930272081188,-8.681661180356866,-10.617983363410806,-0.9764099880956261,-6.929494149188862,-22.288281685090286,-1.6668069888494195
1.96,19.237485100546557,-11.562326299452234,-3.871206351033157,4.0238160257901265,-8.681224041885862,-10.617394746740311,-0.976395846659351,-6.929057258637085,-22.287124766015648,-1.6666472390640525
